-3.173293935139224995e-06,3.425553597702882330e-06,-1.132881593700296686e-04,-2.240819166627212720e-06,7.062152632517644090e-04,-5.910655664534073023e-06,3.295909070680148973e-06,-4.260120901719116142e-06,-1.035134692578226094e-06,-7.853829188161827428e-07,-7.268394045936230475e-05,1.282163410077261921e-06,-1.386342316156720519e-06,-8.303258601526034823e-07,1.627036344825721561e-06,4.754948177222708756e-05,1.905878560964953891e-06,3.559220220322429260e-06,-1.967414519132920904e-06,1.285059849235844812e-06,-3.500448288548515998e-04,-2.569179160743368507e-06,2.216211638436782839e-06,3.680332327168242553e-07,7.855874774598281825e-07,-3.033099676193656201e-06,1.953922630932384831e-06,1.594606892941596088e-06,-1.440892386429053185e-04,3.434117626823337266e-06,2.373574256847717586e-06,3.273060030456404339e-06,1.820060650368100331e-07,-1.396747394173207524e-04,-3.620043590374169020e-04,-3.258617386266505139e-06,-1.412159205479511216e-06,4.808452233027042210e-07,-2.974946195756094942e-04,4.812360834525796220e-07,-4.536872980755830777e-04,1.975912432033841716e-06,-8.863430694134196406e-05,3.086833379579393289e-04,-6.164587381573741250e-06,-9.892808570127168368e-07,-1.173759106509281939e-04,-1.484651537316595518e-06,1.271270186870436297e-04,2.083447210060001122e-05,4.704934338979648122e-06,-6.851127975644473022e-04,-3.086238622700401284e-06,2.604533029331418230e-06,3.697575221742681217e-06,1.551465318844487896e-06,2.521770156091729319e-06,-7.613978466738202651e-08,-3.607402600673326902e-06,-4.006940014627909134e-06,6.211758344147379557e-06,-6.205330248377768322e-09,6.302438546085563946e-07,1.163387110899654435e-06,2.203358057422619622e-06,-5.030450526641659485e-05,-1.863128433935502483e-06,-2.690359078361551463e-06,-1.798601987205557248e-06,1.723707060321021725e-07,-4.489176521733947167e-07,-5.838873788883103325e-06,2.371569843433595173e-06,1.390402629619522860e-04,-7.011664750419563754e-06,-8.212304523869892374e-07,6.142079067269835484e-06,-2.577588143919237822e-06,-7.110588658870534184e-05,-1.617829765798007815e-06
